svm_type one_class
kernel_type rbf
gamma 1
nr_class 2
total_sv 244
rho 108.041
SV
1 1:-0.08606 2:-0.10524 3:0.13111752 4:-0.16378272 5:-0.051360537 6:-0.17863509 7:-0.14946531 8:-0.03275873 9:-0.047039163 10:-0.047039163 11:-0.15832877 
1 1:0.010003 2:-0.10524 3:0.13111752 4:-0.025995297 5:-0.051360537 6:0.507448 7:0.56298976 8:-0.03275873 9:-0.047039163 10:-0.047039163 11:0.29433985 
1 1:-0.08606 2:-0.10524 3:-0.18182206 4:-0.16378272 5:-0.051360537 6:-0.17863509 7:-0.14946531 8:-0.03275873 9:0.000132475 10:-0.050262447 11:-0.15832877 
1 1:0.010003 2:-0.10524 3:-0.18182206 4:-0.16378272 5:-0.051360537 6:-0.090148625 7:0.31454324 8:-0.03275873 9:0.000132475 10:0.33057068 11:0.29433985 
1 1:0.010003 2:-0.10524 3:0.13111752 4:0.34905409 5:0.23990962 6:-0.090148625 7:-0.12957775 8:-0.03275873 9:0.000132475 10:-0.050262447 11:0.25327358 
1 1:-0.08606 2:0.009167 3:0.13111752 4:0.34905409 5:0.029130009 6:0.507448 7:0.31454324 8:-0.03275873 9:0.000132475 10:-0.050262447 11:0.29433985 
1 1:0.191126 2:-0.10524 3:0.13111752 4:-0.16378272 5:-0.051360537 6:0.507448 7:0.11497088 8:-0.03275873 9:-0.047039163 10:-0.047039163 11:0.29433985 
1 1:0.010003 2:-0.10524 3:0.13111752 4:0.20458166 5:0.54633465 6:-0.17863509 7:-0.14946531 8:-0.03275873 9:-0.047039163 10:-0.047039163 11:-0.15832877 
1 1:0.191126 2:-0.10524 3:-0.18182206 4:-0.025995297 5:-0.051360537 6:-0.090148625 7:0.56298976 8:-0.03275873 9:0.000132475 10:-0.050262447 11:0.29433985 
1 1:0.191126 2:0.599271 3:-0.18182206 4:0.061095504 5:0.029130009 6:-0.17863509 7:-0.14946531 8:-0.03275873 9:-0.047039163 10:-0.047039163 11:-0.15832877 
1 1:0.191126 2:0.599271 3:0.13111752 4:0.20458166 5:0.029130009 6:0.507448 7:0.31454324 8:-0.03275873 9:0.000132475 10:-0.050262447 11:0.25327358 
1 1:-0.08915 2:-0.10524 3:-0.18182206 4:-0.16378272 5:-0.051360537 6:-0.17863509 7:-0.14946531 8:-0.03275873 9:-0.047039163 10:-0.047039163 11:-0.15832877 
1 1:0.191126 2:-0.10524 3:0.13111752 4:0.20458166 5:0.029130009 6:-0.090148625 7:-0.12957775 8:-0.03275873 9:0.000132475 10:-0.050262447 11:-0.22667696 
1 1:0.010003 2:0.599271 3:0.13111752 4:0.34905409 5:0.23990962 6:-0.090148625 7:-0.12957775 8:-0.03275873 9:0.000132475 10:-0.050262447 11:0.29433985 
1 1:0.010003 2:-0.10524 3:-0.18182206 4:-0.16378272 5:-0.051360537 6:-0.17863509 7:-0.14946531 8:-0.03275873 9:-0.047039163 10:-0.047039163 11:-0.15832877 
1 1:-0.21088 2:0.009167 3:-0.18182206 4:0.20458166 5:0.029130009 6:-0.090148625 7:0.31454324 8:-0.03275873 9:-0.047039163 10:-0.047039163 11:0.29433985 
1 1:0.191126 2:0.599271 3:0.13111752 4:0.34905409 5:0.54633465 6:-0.090148625 7:0.31454324 8:-0.03275873 9:0.000132475 10:0.33057068 11:0.29433985 
1 1:0.191126 2:-0.10524 3:-0.18182206 4:-0.16378272 5:-0.051360537 6:-0.17863509 7:-0.14946531 8:-0.03275873 9:-0.047039163 10:-0.047039163 11:-0.15832877 
1 1:0.010003 2:-0.10524 3:-0.18182206 4:0.20458166 5:0.029130009 6:-0.090148625 7:0.31454324 8:0.2118809 9:0.000132475 10:-0.050262447 11:0.29433985 
1 1:-0.08606 2:-0.10524 3:0.13111752 4:-0.16378272 5:-0.051360537 6:0.28443156 7:0.31454324 8:-0.005168969 9:0.000132475 10:-0.050262447 11:-0.22667696 
1 1:-0.21088 2:-0.10524 3:-0.18182206 4:-0.16378272 5:-0.051360537 6:-0.17863509 7:-0.14946531 8:-0.03275873 9:0.000132475 10:-0.050262447 11:-0.15832877 
1 1:-0.21088 2:-0.10524 3:-0.18182206 4:-0.025995297 5:-0.051360537 6:-0.17863509 7:-0.14946531 8:-0.03275873 9:-0.047039163 10:-0.047039163 11:-0.15832877 
1 1:-0.21088 2:-0.10524 3:-0.18182206 4:-0.16378272 5:-0.051360537 6:-0.17863509 7:-0.14946531 8:-0.03275873 9:-0.047039163 10:-0.047039163 11:-0.15832877 
1 1:-0.21088 2:-0.10524 3:-0.18182206 4:0.061095504 5:-0.051360537 6:-0.17863509 7:-0.14946531 8:-0.03275873 9:-0.047039163 10:-0.047039163 11:-0.15832877 
1 1:0.191126 2:-0.10524 3:-0.18182206 4:-0.025995297 5:-0.051360537 6:-0.17863509 7:-0.14946531 8:-0.03275873 9:-0.047039163 10:-0.047039163 11:-0.15832877 
1 1:0.010003 2:-0.10524 3:0.13111752 4:-0.025995297 5:0.029130009 6:-0.090148625 7:-0.12957775 8:-0.03275873 9:0.4671534 10:0.4022126 11:-0.22667696 
0.9248955603879445 1:0.010003 2:-0.10524 3:0.13111752 4:0.20458166 5:0.029130009 6:0.507448 7:0.11497088 8:-0.03275873 9:-0.047039163 10:-0.047039163 11:0.29433985 
1 1:-0.08915 2:-0.10524 3:0.13111752 4:-0.16378272 5:-0.051360537 6:-0.17863509 7:-0.14946531 8:-0.03275873 9:-0.047039163 10:-0.047039163 11:-0.15832877 
1 1:-0.08606 2:-0.10524 3:0.13111752 4:-0.025995297 5:-0.051360537 6:-0.090148625 7:-0.12957775 8:-0.005168969 9:0.45076299 10:0.4022126 11:-0.22667696 
1 1:0.191126 2:0.599271 3:0.13111752 4:-0.025995297 5:0.029130009 6:0.507448 7:0.31454324 8:0.2118809 9:-0.047039163 10:-0.047039163 11:0.25327358 
1 1:-0.21088 2:0.009167 3:-0.18182206 4:-0.16378272 5:-0.051360537 6:-0.17863509 7:-0.14946531 8:-0.03275873 9:-0.047039163 10:-0.047039163 11:-0.15832877 
1 1:0.010003 2:-0.10524 3:0.13111752 4:-0.025995297 5:-0.051360537 6:-0.17863509 7:-0.14946531 8:-0.03275873 9:0.4671534 10:0.83513019 11:-0.15832877 
1 1:0.010003 2:-0.10524 3:0.13111752 4:-0.025995297 5:-0.051360537 6:-0.090148625 7:-0.12957775 8:-0.03275873 9:0.4671534 10:0.33057068 11:-0.22667696 
1 1:0.191126 2:-0.10524 3:0.13111752 4:-0.16378272 5:-0.051360537 6:-0.090148625 7:-0.12957775 8:-0.03275873 9:0.000132475 10:-0.050262447 11:-0.22667696 
0.5096236465262258 1:0.191126 2:-0.10524 3:-0.18182206 4:0.061095504 5:0.029130009 6:-0.17863509 7:-0.14946531 8:-0.03275873 9:-0.047039163 10:-0.047039163 11:-0.15832877 
1 1:0.010003 2:-0.10524 3:-0.18182206 4:-0.025995297 5:0.029130009 6:0.507448 7:0.56298976 8:-0.03275873 9:-0.047039163 10:-0.047039163 11:0.29433985 
1 1:0.010003 2:0.009167 3:0.13111752 4:0.20458166 5:0.54633465 6:-0.090148625 7:-0.12957775 8:-0.005168969 9:0.000132475 10:0.33057068 11:-0.22667696 
1 1:-0.08915 2:-0.10524 3:-0.18182206 4:-0.16378272 5:-0.051360537 6:-0.17863509 7:-0.14946531 8:-0.03275873 9:-0.047039163 10:-0.047039163 11:-0.15832877 
1 1:-0.08606 2:-0.10524 3:0.13111752 4:-0.16378272 5:-0.051360537 6:-0.090148625 7:0.56298976 8:-0.005168969 9:-0.047039163 10:-0.047039163 11:0.29433985 
1 1:0.010003 2:-0.10524 3:-0.18182206 4:-0.16378272 5:-0.051360537 6:-0.17863509 7:-0.14946531 8:-0.03275873 9:-0.047039163 10:-0.047039163 11:-0.15832877 
1 1:0.191126 2:-0.10524 3:0.13111752 4:0.34905409 5:0.23990962 6:-0.090148625 7:-0.12957775 8:-0.005168969 9:-0.047039163 10:-0.047039163 11:-0.22667696 
1 1:-0.08915 2:-0.10524 3:-0.18182206 4:-0.16378272 5:-0.051360537 6:-0.17863509 7:-0.14946531 8:-0.03275873 9:-0.047039163 10:-0.047039163 11:-0.15832877 
1 1:-0.21088 2:-0.10524 3:0.13111752 4:-0.025995297 5:-0.051360537 6:-0.17863509 7:-0.14946531 8:-0.03275873 9:0.000132475 10:-0.050262447 11:-0.15832877 
1 1:-0.21088 2:-0.10524 3:-0.18182206 4:-0.16378272 5:-0.051360537 6:-0.090148625 7:-0.12957775 8:-0.03275873 9:0.000132475 10:-0.050262447 11:-0.22667696 
1 1:-0.08606 2:-0.10524 3:-0.18182206 4:-0.16378272 5:-0.051360537 6:-0.090148625 7:-0.12957775 8:-0.03275873 9:-0.047039163 10:-0.047039163 11:-0.22667696 
1 1:-0.21088 2:-0.10524 3:-0.18182206 4:-0.16378272 5:-0.051360537 6:-0.17863509 7:-0.14946531 8:-0.03275873 9:-0.047039163 10:-0.047039163 11:-0.15832877 
1 1:-0.08606 2:-0.10524 3:0.13111752 4:0.20458166 5:-0.051360537 6:-0.17863509 7:-0.14946531 8:-0.03275873 9:-0.047039163 10:-0.047039163 11:-0.15832877 
1 1:0.191126 2:-0.10524 3:0.13111752 4:-0.16378272 5:-0.051360537 6:-0.17863509 7:-0.14946531 8:-0.03275873 9:0.000132475 10:-0.050262447 11:-0.15832877 
1 1:0.010003 2:0.599271 3:-0.18182206 4:-0.025995297 5:-0.051360537 6:0.28443156 7:0.56298976 8:-0.005168969 9:-0.047039163 10:-0.047039163 11:0.29433985 
1 1:-0.08915 2:-0.10524 3:0.13111752 4:-0.16378272 5:-0.051360537 6:-0.17863509 7:-0.14946531 8:-0.03275873 9:-0.047039163 10:-0.047039163 11:-0.15832877 
1 1:0.010003 2:-0.10524 3:0.13111752 4:-0.025995297 5:0.029130009 6:0.507448 7:0.56298976 8:0.71703088 9:0.000132475 10:-0.050262447 11:0.29433985 
1 1:-0.08606 2:-0.10524 3:0.13111752 4:-0.025995297 5:-0.051360537 6:0.507448 7:0.31454324 8:0.2118809 9:0.000132475 10:-0.050262447 11:0.29433985 
1 1:0.010003 2:-0.10524 3:-0.18182206 4:0.061095504 5:0.029130009 6:0.507448 7:0.56298976 8:-0.005168969 9:0.000132475 10:-0.050262447 11:0.29433985 
1 1:0.010003 2:-0.10524 3:-0.18182206 4:-0.025995297 5:-0.051360537 6:0.507448 7:0.31454324 8:0.71703088 9:-0.047039163 10:-0.047039163 11:0.29433985 
1 1:-0.08606 2:-0.10524 3:-0.18182206 4:-0.16378272 5:-0.051360537 6:-0.17863509 7:-0.14946531 8:-0.03275873 9:-0.047039163 10:-0.047039163 11:-0.15832877 
1 1:-0.21088 2:-0.10524 3:0.13111752 4:0.20458166 5:0.029130009 6:-0.17863509 7:-0.14946531 8:-0.03275873 9:0.000132475 10:-0.050262447 11:-0.15832877 
1 1:0.191126 2:-0.10524 3:0.13111752 4:0.34905409 5:0.54633465 6:-0.090148625 7:-0.12957775 8:-0.03275873 9:-0.047039163 10:-0.047039163 11:0.29433985 
1 1:0.191126 2:-0.10524 3:-0.18182206 4:-0.16378272 5:-0.051360537 6:-0.17863509 7:-0.14946531 8:-0.03275873 9:-0.047039163 10:-0.047039163 11:-0.15832877 
1 1:0.010003 2:-0.10524 3:-0.18182206 4:-0.025995297 5:0.029130009 6:0.507448 7:0.56298976 8:-0.03275873 9:0.000132475 10:0.33057068 11:0.29433985 
1 1:-0.08606 2:-0.10524 3:-0.18182206 4:-0.025995297 5:-0.051360537 6:0.507448 7:0.31454324 8:-0.03275873 9:-0.047039163 10:-0.047039163 11:0.29433985 
1 1:0.191126 2:0.599271 3:-0.18182206 4:0.061095504 5:0.029130009 6:-0.17863509 7:-0.14946531 8:-0.03275873 9:-0.047039163 10:-0.047039163 11:-0.15832877 
1 1:0.010003 2:-0.10524 3:0.13111752 4:0.34905409 5:0.54633465 6:-0.17863509 7:-0.14946531 8:-0.03275873 9:-0.047039163 10:-0.047039163 11:-0.15832877 
1 1:-0.08606 2:0.009167 3:0.13111752 4:-0.025995297 5:0.029130009 6:0.507448 7:0.31454324 8:-0.03275873 9:0.000132475 10:0.33057068 11:0.29433985 
1 1:0.191126 2:0.599271 3:0.13111752 4:-0.025995297 5:-0.051360537 6:-0.090148625 7:-0.12957775 8:-0.03275873 9:0.000132475 10:-0.050262447 11:-0.22667696 
1 1:0.010003 2:0.599271 3:0.13111752 4:-0.025995297 5:0.029130009 6:-0.090148625 7:0.31454324 8:-0.03275873 9:0.4671534 10:0.83513019 11:0.29433985 
1 1:0.191126 2:-0.10524 3:0.13111752 4:-0.16378272 5:-0.051360537 6:-0.090148625 7:0.31454324 8:-0.03275873 9:0.000132475 10:-0.050262447 11:-0.22667696 
1 1:-0.21088 2:-0.10524 3:0.13111752 4:-0.16378272 5:-0.051360537 6:0.507448 7:0.31454324 8:-0.03275873 9:0.000132475 10:-0.050262447 11:0.29433985 
1 1:0.010003 2:-0.10524 3:-0.18182206 4:0.34905409 5:0.029130009 6:-0.17863509 7:-0.14946531 8:-0.03275873 9:-0.047039163 10:-0.047039163 11:-0.15832877 
1 1:0.010003 2:-0.10524 3:0.13111752 4:-0.025995297 5:0.029130009 6:0.28443156 7:0.56298976 8:-0.03275873 9:0.000132475 10:0.33057068 11:0.29433985 
1 1:0.010003 2:-0.10524 3:0.13111752 4:-0.16378272 5:-0.051360537 6:0.507448 7:0.31454324 8:-0.03275873 9:-0.047039163 10:-0.047039163 11:0.25327358 
1 1:-0.21088 2:-0.10524 3:0.13111752 4:0.061095504 5:-0.051360537 6:-0.17863509 7:-0.14946531 8:-0.03275873 9:-0.047039163 10:-0.047039163 11:-0.15832877 
1 1:-0.21088 2:-0.10524 3:0.13111752 4:0.20458166 5:0.54633465 6:-0.090148625 7:-0.12957775 8:-0.03275873 9:0.000132475 10:-0.050262447 11:-0.22667696 
1 1:-0.08606 2:0.009167 3:0.13111752 4:0.20458166 5:-0.051360537 6:0.507448 7:0.56298976 8:0.2118809 9:-0.047039163 10:-0.047039163 11:0.29433985 
1 1:-0.08606 2:-0.10524 3:0.13111752 4:0.20458166 5:-0.051360537 6:-0.17863509 7:-0.14946531 8:-0.03275873 9:-0.047039163 10:-0.047039163 11:-0.15832877 
0.03977653979469315 1:0.010003 2:-0.10524 3:-0.18182206 4:-0.16378272 5:-0.051360537 6:-0.17863509 7:-0.14946531 8:-0.03275873 9:-0.047039163 10:-0.047039163 11:-0.15832877 
1 1:-0.08606 2:-0.10524 3:0.13111752 4:-0.16378272 5:-0.051360537 6:-0.17863509 7:-0.14946531 8:-0.03275873 9:-0.047039163 10:-0.047039163 11:-0.15832877 
1 1:0.010003 2:-0.10524 3:0.13111752 4:-0.16378272 5:-0.051360537 6:0.507448 7:0.56298976 8:-0.03275873 9:0.000132475 10:0.33057068 11:0.29433985 
1 1:-0.21088 2:0.009167 3:0.13111752 4:-0.16378272 5:-0.051360537 6:0.507448 7:0.31454324 8:-0.03275873 9:0.000132475 10:-0.050262447 11:0.25327358 
1 1:0.191126 2:0.599271 3:0.13111752 4:-0.16378272 5:-0.051360537 6:0.507448 7:0.56298976 8:-0.03275873 9:0.000132475 10:-0.050262447 11:0.29433985 
1 1:-0.08606 2:-0.10524 3:0.13111752 4:-0.16378272 5:-0.051360537 6:0.507448 7:0.56298976 8:-0.03275873 9:0.000132475 10:-0.050262447 11:0.29433985 
1 1:0.010003 2:-0.10524 3:0.13111752 4:-0.16378272 5:-0.051360537 6:0.507448 7:0.31454324 8:-0.03275873 9:0.000132475 10:-0.050262447 11:0.29433985 
1 1:-0.21088 2:-0.10524 3:-0.18182206 4:-0.16378272 5:-0.051360537 6:0.507448 7:0.56298976 8:-0.03275873 9:-0.047039163 10:-0.047039163 11:0.29433985 
1 1:0.010003 2:0.599271 3:0.13111752 4:-0.16378272 5:-0.051360537 6:-0.17863509 7:-0.14946531 8:-0.03275873 9:-0.047039163 10:-0.047039163 11:-0.15832877 
1 1:-0.08606 2:-0.10524 3:0.13111752 4:-0.16378272 5:-0.051360537 6:-0.17863509 7:-0.14946531 8:-0.03275873 9:-0.047039163 10:-0.047039163 11:-0.15832877 
1 1:0.010003 2:0.009167 3:-0.18182206 4:-0.16378272 5:-0.051360537 6:-0.090148625 7:-0.14946531 8:0.71703088 9:-0.047039163 10:-0.047039163 11:-0.15832877 
0.5807126423499714 1:-0.08606 2:-0.10524 3:-0.18182206 4:-0.16378272 5:-0.051360537 6:-0.090148625 7:-0.12957775 8:-0.03275873 9:-0.047039163 10:-0.047039163 11:-0.22667696 
1 1:-0.08606 2:-0.10524 3:0.13111752 4:-0.16378272 5:-0.051360537 6:-0.090148625 7:-0.12957775 8:-0.03275873 9:0.000132475 10:-0.050262447 11:0.29433985 
1 1:-0.21088 2:-0.10524 3:0.13111752 4:-0.025995297 5:-0.051360537 6:-0.17863509 7:-0.14946531 8:-0.03275873 9:-0.047039163 10:-0.047039163 11:-0.15832877 
1 1:0.010003 2:0.599271 3:0.13111752 4:-0.025995297 5:-0.051360537 6:0.28443156 7:0.11497088 8:-0.03275873 9:0.45076299 10:0.4022126 11:0.29433985 
1 1:-0.08606 2:0.009167 3:0.13111752 4:0.29106214 5:0.54633465 6:0.507448 7:0.56298976 8:-0.03275873 9:0.000132475 10:0.33057068 11:0.29433985 
1 1:0.191126 2:-0.10524 3:-0.18182206 4:0.061095504 5:-0.051360537 6:0.28443156 7:0.56298976 8:-0.03275873 9:-0.047039163 10:-0.047039163 11:0.29433985 
1 1:0.191126 2:-0.10524 3:-0.18182206 4:-0.025995297 5:0.029130009 6:0.507448 7:0.11497088 8:-0.03275873 9:-0.047039163 10:-0.047039163 11:0.25327358 
1 1:0.191126 2:0.599271 3:0.13111752 4:0.29106214 5:0.23990962 6:0.28443156 7:0.31454324 8:-0.03275873 9:-0.047039163 10:-0.047039163 11:0.29433985 
1 1:0.191126 2:0.599271 3:-0.18182206 4:-0.16378272 5:-0.051360537 6:0.507448 7:0.56298976 8:0.71703088 9:0.000132475 10:-0.050262447 11:0.29433985 
1 1:-0.08606 2:0.009167 3:0.13111752 4:0.34905409 5:0.23990962 6:0.28443156 7:-0.12957775 8:-0.005168969 9:0.000132475 10:-0.050262447 11:0.29433985 
1 1:-0.08606 2:0.009167 3:0.13111752 4:0.29106214 5:-0.051360537 6:0.507448 7:0.31454324 8:0.71703088 9:0.000132475 10:0.33057068 11:0.29433985 
1 1:-0.08606 2:-0.10524 3:0.13111752 4:0.34905409 5:-0.051360537 6:0.507448 7:0.56298976 8:-0.03275873 9:0.000132475 10:-0.050262447 11:0.29433985 
1 1:0.010003 2:0.009167 3:-0.18182206 4:0.34905409 5:0.029130009 6:-0.090148625 7:-0.14946531 8:-0.03275873 9:-0.047039163 10:-0.047039163 11:-0.15832877 
1 1:0.010003 2:0.599271 3:-0.18182206 4:-0.025995297 5:-0.051360537 6:-0.17863509 7:-0.14946531 8:-0.03275873 9:-0.047039163 10:-0.047039163 11:-0.15832877 
1 1:0.010003 2:0.009167 3:-0.18182206 4:0.29106214 5:0.23990962 6:-0.17863509 7:-0.14946531 8:-0.03275873 9:0.45076299 10:0.4022126 11:-0.15832877 
1 1:0.010003 2:0.599271 3:0.13111752 4:-0.025995297 5:-0.051360537 6:0.28443156 7:0.31454324 8:-0.03275873 9:-0.047039163 10:-0.047039163 11:0.29433985 
1 1:0.010003 2:-0.10524 3:-0.18182206 4:-0.025995297 5:-0.051360537 6:0.507448 7:0.56298976 8:0.71703088 9:0.000132475 10:0.33057068 11:0.29433985 
1 1:0.010003 2:0.009167 3:0.13111752 4:0.20458166 5:0.029130009 6:0.507448 7:0.56298976 8:-0.03275873 9:0.000132475 10:0.33057068 11:0.29433985 
1 1:0.010003 2:0.599271 3:0.13111752 4:-0.025995297 5:-0.051360537 6:-0.090148625 7:-0.12957775 8:-0.03275873 9:0.000132475 10:-0.050262447 11:0.25327358 
1 1:0.010003 2:0.599271 3:0.13111752 4:0.061095504 5:-0.051360537 6:0.507448 7:0.56298976 8:-0.03275873 9:0.45076299 10:0.33057068 11:0.29433985 
1 1:0.191126 2:0.599271 3:0.13111752 4:0.29106214 5:0.23990962 6:0.28443156 7:0.11497088 8:-0.03275873 9:0.000132475 10:0.33057068 11:0.29433985 
1 1:0.010003 2:0.599271 3:0.13111752 4:0.34905409 5:0.54633465 6:0.507448 7:0.56298976 8:-0.03275873 9:0.45076299 10:0.4022126 11:0.29433985 
1 1:-0.08606 2:0.009167 3:-0.18182206 4:-0.025995297 5:-0.051360537 6:0.507448 7:0.56298976 8:-0.03275873 9:-0.047039163 10:-0.047039163 11:0.29433985 
1 1:-0.08606 2:-0.10524 3:-0.18182206 4:-0.16378272 5:-0.051360537 6:0.507448 7:0.31454324 8:-0.03275873 9:-0.047039163 10:-0.047039163 11:0.25327358 
1 1:0.010003 2:0.009167 3:-0.18182206 4:0.20458166 5:0.54633465 6:0.507448 7:0.56298976 8:-0.03275873 9:0.4671534 10:0.4022126 11:0.29433985 
1 1:0.191126 2:0.599271 3:-0.18182206 4:-0.16378272 5:-0.051360537 6:-0.090148625 7:0.31454324 8:-0.03275873 9:-0.047039163 10:-0.047039163 11:0.29433985 
1 1:0.010003 2:-0.10524 3:0.13111752 4:0.061095504 5:-0.051360537 6:0.507448 7:0.11497088 8:-0.03275873 9:0.45076299 10:0.4022126 11:0.29433985 
1 1:0.191126 2:0.599271 3:0.13111752 4:0.061095504 5:0.029130009 6:0.507448 7:0.56298976 8:0.71703088 9:0.4671534 10:0.83513019 11:0.29433985 
1 1:0.191126 2:0.599271 3:0.13111752 4:-0.025995297 5:-0.051360537 6:0.507448 7:0.11497088 8:-0.005168969 9:0.4671534 10:0.4022126 11:0.29433985 
1 1:0.191126 2:0.599271 3:-0.18182206 4:-0.16378272 5:-0.051360537 6:0.507448 7:0.56298976 8:-0.03275873 9:-0.047039163 10:-0.047039163 11:0.29433985 
1 1:0.191126 2:0.599271 3:-0.18182206 4:-0.025995297 5:-0.051360537 6:0.28443156 7:0.31454324 8:-0.03275873 9:-0.047039163 10:-0.047039163 11:-0.22667696 
1 1:-0.21088 2:-0.10524 3:0.13111752 4:0.29106214 5:0.029130009 6:-0.090148625 7:-0.12957775 8:-0.03275873 9:0.000132475 10:-0.050262447 11:-0.22667696 
1 1:0.191126 2:0.599271 3:0.13111752 4:0.34905409 5:0.029130009 6:0.507448 7:0.56298976 8:0.71703088 9:0.000132475 10:0.33057068 11:0.29433985 
1 1:0.191126 2:0.599271 3:-0.18182206 4:0.061095504 5:0.54633465 6:0.507448 7:0.56298976 8:-0.03275873 9:-0.047039163 10:-0.047039163 11:0.29433985 
1 1:0.191126 2:0.599271 3:-0.18182206 4:-0.025995297 5:0.029130009 6:0.507448 7:0.56298976 8:-0.03275873 9:-0.047039163 10:-0.047039163 11:0.29433985 
1 1:-0.08915 2:-0.10524 3:0.13111752 4:-0.16378272 5:-0.051360537 6:0.507448 7:0.56298976 8:-0.03275873 9:0.000132475 10:-0.050262447 11:0.29433985 
1 1:0.010003 2:0.599271 3:-0.18182206 4:0.061095504 5:0.54633465 6:0.507448 7:0.56298976 8:-0.03275873 9:0.000132475 10:0.33057068 11:0.29433985 
1 1:-0.08606 2:-0.10524 3:0.13111752 4:0.061095504 5:-0.051360537 6:0.507448 7:0.56298976 8:-0.03275873 9:0.45076299 10:0.4022126 11:0.29433985 
1 1:-0.08606 2:-0.10524 3:0.13111752 4:-0.025995297 5:0.54633465 6:-0.090148625 7:-0.12957775 8:-0.03275873 9:0.000132475 10:-0.050262447 11:-0.22667696 
1 1:0.010003 2:-0.10524 3:-0.18182206 4:-0.025995297 5:-0.051360537 6:-0.090148625 7:-0.12957775 8:-0.005168969 9:0.4671534 10:0.83513019 11:0.29433985 
1 1:-0.08606 2:-0.10524 3:0.13111752 4:-0.025995297 5:0.54633465 6:-0.090148625 7:-0.12957775 8:-0.03275873 9:0.000132475 10:-0.050262447 11:-0.22667696 
1 1:0.191126 2:-0.10524 3:-0.18182206 4:0.061095504 5:0.54633465 6:0.507448 7:0.56298976 8:0.71703088 9:0.4671534 10:0.33057068 11:0.29433985 
1 1:-0.08606 2:-0.10524 3:-0.18182206 4:-0.16378272 5:-0.051360537 6:0.507448 7:0.31454324 8:-0.03275873 9:-0.047039163 10:-0.047039163 11:0.29433985 
1 1:0.010003 2:0.599271 3:-0.18182206 4:-0.025995297 5:-0.051360537 6:0.507448 7:0.56298976 8:-0.03275873 9:-0.047039163 10:-0.047039163 11:0.29433985 
1 1:0.191126 2:0.599271 3:0.13111752 4:0.20458166 5:0.029130009 6:0.507448 7:0.56298976 8:-0.03275873 9:0.4671534 10:0.83513019 11:0.29433985 
1 1:0.191126 2:0.599271 3:-0.18182206 4:0.20458166 5:0.54633465 6:-0.090148625 7:0.56298976 8:-0.03275873 9:0.000132475 10:0.4022126 11:0.29433985 
1 1:-0.08606 2:0.009167 3:0.13111752 4:-0.025995297 5:-0.051360537 6:0.507448 7:0.56298976 8:-0.03275873 9:-0.047039163 10:-0.047039163 11:0.29433985 
1 1:0.191126 2:-0.10524 3:0.13111752 4:-0.025995297 5:-0.051360537 6:0.507448 7:0.31454324 8:-0.03275873 9:-0.047039163 10:-0.047039163 11:0.29433985 
1 1:0.191126 2:0.599271 3:-0.18182206 4:0.34905409 5:0.23990962 6:0.507448 7:0.56298976 8:0.71703088 9:0.45076299 10:0.4022126 11:0.29433985 
1 1:0.191126 2:0.599271 3:0.13111752 4:0.20458166 5:0.029130009 6:0.507448 7:0.56298976 8:-0.03275873 9:0.000132475 10:-0.050262447 11:0.29433985 
1 1:-0.08606 2:0.009167 3:0.13111752 4:-0.16378272 5:-0.051360537 6:0.507448 7:0.11497088 8:0.71703088 9:-0.047039163 10:-0.047039163 11:0.29433985 
1 1:0.191126 2:0.599271 3:0.13111752 4:-0.025995297 5:-0.051360537 6:-0.090148625 7:-0.12957775 8:-0.03275873 9:0.000132475 10:-0.050262447 11:0.25327358 
1 1:0.010003 2:-0.10524 3:0.13111752 4:-0.16378272 5:-0.051360537 6:0.507448 7:0.31454324 8:-0.005168969 9:0.000132475 10:0.33057068 11:0.29433985 
1 1:0.010003 2:0.599271 3:0.13111752 4:-0.16378272 5:-0.051360537 6:-0.17863509 7:-0.14946531 8:-0.03275873 9:0.4671534 10:0.33057068 11:-0.15832877 
1 1:0.010003 2:-0.10524 3:0.13111752 4:-0.025995297 5:0.54633465 6:-0.090148625 7:-0.12957775 8:-0.005168969 9:0.000132475 10:-0.050262447 11:-0.22667696 
1 1:0.191126 2:-0.10524 3:-0.18182206 4:0.061095504 5:-0.051360537 6:-0.090148625 7:-0.12957775 8:-0.03275873 9:0.000132475 10:-0.050262447 11:0.29433985 
1 1:0.191126 2:-0.10524 3:-0.18182206 4:-0.025995297 5:-0.051360537 6:0.507448 7:0.31454324 8:-0.03275873 9:-0.047039163 10:-0.047039163 11:0.29433985 
1 1:0.191126 2:0.599271 3:0.13111752 4:0.20458166 5:0.029130009 6:-0.090148625 7:-0.14946531 8:-0.03275873 9:0.45076299 10:0.33057068 11:-0.15832877 
1 1:0.191126 2:0.599271 3:0.13111752 4:-0.16378272 5:-0.051360537 6:0.28443156 7:0.56298976 8:-0.03275873 9:0.4671534 10:0.83513019 11:0.29433985 
1 1:0.191126 2:-0.10524 3:0.13111752 4:-0.025995297 5:-0.051360537 6:0.507448 7:0.31454324 8:-0.03275873 9:0.000132475 10:-0.050262447 11:0.29433985 
1 1:0.191126 2:0.599271 3:0.13111752 4:0.20458166 5:0.029130009 6:0.507448 7:0.56298976 8:-0.03275873 9:0.000132475 10:-0.050262447 11:0.29433985 
1 1:0.010003 2:-0.10524 3:-0.18182206 4:-0.16378272 5:-0.051360537 6:0.507448 7:0.31454324 8:-0.03275873 9:-0.047039163 10:-0.047039163 11:0.25327358 
1 1:0.191126 2:0.599271 3:-0.18182206 4:-0.025995297 5:-0.051360537 6:0.507448 7:0.56298976 8:0.71703088 9:-0.047039163 10:-0.047039163 11:0.29433985 
1 1:0.010003 2:-0.10524 3:-0.18182206 4:-0.16378272 5:-0.051360537 6:-0.17863509 7:-0.14946531 8:-0.03275873 9:-0.047039163 10:-0.047039163 11:-0.15832877 
1 1:0.191126 2:0.599271 3:-0.18182206 4:-0.025995297 5:-0.051360537 6:0.28443156 7:0.31454324 8:-0.005168969 9:-0.047039163 10:-0.047039163 11:0.29433985 
1 1:0.191126 2:0.599271 3:-0.18182206 4:-0.025995297 5:0.029130009 6:0.507448 7:0.11497088 8:0.2118809 9:0.45076299 10:0.4022126 11:0.29433985 
1 1:0.010003 2:-0.10524 3:0.13111752 4:0.061095504 5:-0.051360537 6:0.507448 7:0.56298976 8:-0.03275873 9:-0.047039163 10:-0.047039163 11:0.29433985 
1 1:0.010003 2:0.599271 3:-0.18182206 4:0.061095504 5:0.029130009 6:-0.090148625 7:-0.12957775 8:-0.03275873 9:0.000132475 10:0.33057068 11:-0.22667696 
1 1:0.191126 2:0.599271 3:-0.18182206 4:0.20458166 5:0.54633465 6:0.507448 7:0.56298976 8:-0.03275873 9:0.4671534 10:0.83513019 11:0.29433985 
1 1:0.191126 2:-0.10524 3:0.13111752 4:-0.16378272 5:-0.051360537 6:-0.17863509 7:-0.14946531 8:-0.03275873 9:-0.047039163 10:-0.047039163 11:-0.15832877 
1 1:0.191126 2:0.599271 3:-0.18182206 4:0.20458166 5:0.029130009 6:0.507448 7:0.56298976 8:0.71703088 9:0.4671534 10:0.83513019 11:0.29433985 
1 1:0.010003 2:-0.10524 3:0.13111752 4:0.34905409 5:0.23990962 6:0.28443156 7:0.11497088 8:0.2118809 9:0.000132475 10:0.33057068 11:0.29433985 
1 1:0.191126 2:-0.10524 3:-0.18182206 4:-0.16378272 5:-0.051360537 6:-0.090148625 7:-0.12957775 8:-0.03275873 9:0.000132475 10:-0.050262447 11:-0.22667696 
1 1:0.010003 2:-0.10524 3:0.13111752 4:0.20458166 5:-0.051360537 6:0.507448 7:0.56298976 8:0.71703088 9:-0.047039163 10:-0.047039163 11:0.29433985 
1 1:0.010003 2:-0.10524 3:0.13111752 4:0.34905409 5:-0.051360537 6:-0.17863509 7:-0.14946531 8:-0.03275873 9:-0.047039163 10:-0.047039163 11:-0.15832877 
1 1:0.010003 2:0.599271 3:-0.18182206 4:-0.025995297 5:-0.051360537 6:-0.090148625 7:-0.12957775 8:-0.03275873 9:-0.047039163 10:-0.047039163 11:-0.22667696 
1 1:0.191126 2:0.599271 3:-0.18182206 4:0.061095504 5:-0.051360537 6:-0.090148625 7:-0.14946531 8:-0.03275873 9:-0.047039163 10:-0.047039163 11:-0.15832877 
1 1:-0.21088 2:-0.10524 3:0.13111752 4:-0.025995297 5:-0.051360537 6:-0.17863509 7:-0.14946531 8:-0.03275873 9:-0.047039163 10:-0.047039163 11:-0.15832877 
1 1:0.010003 2:-0.10524 3:-0.18182206 4:0.061095504 5:0.029130009 6:0.507448 7:0.56298976 8:0.2118809 9:0.4671534 10:0.83513019 11:0.29433985 
1 1:0.191126 2:-0.10524 3:-0.18182206 4:0.061095504 5:-0.051360537 6:-0.090148625 7:0.31454324 8:-0.03275873 9:0.000132475 10:-0.050262447 11:-0.22667696 
1 1:0.010003 2:0.599271 3:-0.18182206 4:0.34905409 5:0.029130009 6:0.507448 7:0.56298976 8:0.71703088 9:-0.047039163 10:-0.047039163 11:0.29433985 
1 1:-0.08606 2:-0.10524 3:0.13111752 4:0.34905409 5:0.029130009 6:-0.090148625 7:-0.12957775 8:-0.005168969 9:-0.047039163 10:-0.047039163 11:0.25327358 
1 1:0.191126 2:0.599271 3:-0.18182206 4:-0.025995297 5:-0.051360537 6:-0.17863509 7:-0.14946531 8:-0.03275873 9:0.000132475 10:-0.050262447 11:-0.15832877 
1 1:-0.21088 2:-0.10524 3:0.13111752 4:-0.16378272 5:-0.051360537 6:-0.090148625 7:0.31454324 8:-0.005168969 9:0.000132475 10:-0.050262447 11:0.29433985 
1 1:-0.08606 2:-0.10524 3:0.13111752 4:0.20458166 5:0.029130009 6:0.507448 7:0.31454324 8:0.2118809 9:0.000132475 10:-0.050262447 11:0.29433985 
1 1:0.010003 2:-0.10524 3:0.13111752 4:-0.025995297 5:-0.051360537 6:-0.090148625 7:-0.12957775 8:-0.03275873 9:0.000132475 10:0.33057068 11:-0.22667696 
1 1:0.010003 2:-0.10524 3:-0.18182206 4:0.20458166 5:0.23990962 6:-0.090148625 7:-0.12957775 8:-0.03275873 9:0.45076299 10:0.4022126 11:-0.22667696 
1 1:0.010003 2:-0.10524 3:0.13111752 4:0.061095504 5:-0.051360537 6:0.28443156 7:0.31454324 8:-0.03275873 9:0.4671534 10:0.83513019 11:0.25327358 
1 1:0.191126 2:0.599271 3:0.13111752 4:-0.16378272 5:-0.051360537 6:-0.090148625 7:0.31454324 8:-0.03275873 9:-0.047039163 10:-0.047039163 11:0.29433985 
1 1:-0.08606 2:-0.10524 3:0.13111752 4:0.34905409 5:0.23990962 6:0.507448 7:0.56298976 8:-0.03275873 9:0.000132475 10:-0.050262447 11:0.29433985 
1 1:0.010003 2:-0.10524 3:0.13111752 4:-0.16378272 5:-0.051360537 6:-0.090148625 7:0.31454324 8:-0.03275873 9:0.000132475 10:0.33057068 11:0.25327358 
1 1:0.191126 2:0.599271 3:-0.18182206 4:0.20458166 5:0.029130009 6:-0.090148625 7:0.31454324 8:-0.03275873 9:0.000132475 10:-0.050262447 11:-0.22667696 
1 1:0.191126 2:-0.10524 3:-0.18182206 4:0.34905409 5:0.54633465 6:0.507448 7:0.11497088 8:-0.03275873 9:0.000132475 10:-0.050262447 11:0.29433985 
1 1:0.191126 2:0.599271 3:-0.18182206 4:-0.025995297 5:0.029130009 6:-0.17863509 7:-0.14946531 8:-0.03275873 9:0.000132475 10:0.4022126 11:-0.15832877 
1 1:0.191126 2:0.599271 3:-0.18182206 4:0.20458166 5:0.029130009 6:-0.17863509 7:-0.14946531 8:-0.03275873 9:0.45076299 10:0.83513019 11:-0.15832877 
1 1:0.191126 2:0.599271 3:-0.18182206 4:-0.16378272 5:-0.051360537 6:-0.17863509 7:-0.14946531 8:-0.03275873 9:-0.047039163 10:-0.047039163 11:-0.15832877 
1 1:0.191126 2:0.599271 3:-0.18182206 4:-0.025995297 5:0.029130009 6:-0.17863509 7:-0.14946531 8:-0.03275873 9:-0.047039163 10:-0.047039163 11:-0.15832877 
1 1:0.191126 2:0.599271 3:-0.18182206 4:-0.025995297 5:-0.051360537 6:-0.17863509 7:-0.14946531 8:-0.03275873 9:-0.047039163 10:-0.047039163 11:-0.15832877 
1 1:0.191126 2:0.599271 3:-0.18182206 4:0.20458166 5:0.029130009 6:-0.17863509 7:-0.14946531 8:-0.03275873 9:-0.047039163 10:-0.047039163 11:-0.15832877 
1 1:0.010003 2:0.599271 3:0.13111752 4:0.061095504 5:0.029130009 6:0.28443156 7:0.56298976 8:-0.005168969 9:0.45076299 10:0.4022126 11:0.29433985 
1 1:0.191126 2:0.599271 3:-0.18182206 4:0.061095504 5:0.029130009 6:-0.17863509 7:-0.14946531 8:-0.03275873 9:0.45076299 10:0.83513019 11:-0.15832877 
1 1:0.191126 2:0.599271 3:-0.18182206 4:0.29106214 5:0.54633465 6:0.507448 7:0.56298976 8:-0.03275873 9:-0.047039163 10:-0.047039163 11:0.29433985 
1 1:0.010003 2:0.599271 3:-0.18182206 4:0.34905409 5:0.029130009 6:-0.090148625 7:-0.12957775 8:-0.03275873 9:0.000132475 10:0.4022126 11:-0.22667696 
1 1:0.191126 2:0.599271 3:-0.18182206 4:0.20458166 5:0.029130009 6:0.28443156 7:0.11497088 8:0.2118809 9:-0.047039163 10:-0.047039163 11:0.29433985 
1 1:0.010003 2:0.599271 3:-0.18182206 4:-0.025995297 5:-0.051360537 6:-0.17863509 7:-0.14946531 8:-0.03275873 9:-0.047039163 10:-0.047039163 11:-0.15832877 
1 1:0.010003 2:0.009167 3:0.13111752 4:0.20458166 5:0.54633465 6:-0.090148625 7:-0.12957775 8:-0.03275873 9:0.000132475 10:-0.050262447 11:0.25327358 
1 1:-0.08606 2:-0.10524 3:-0.18182206 4:-0.16378272 5:-0.051360537 6:-0.17863509 7:-0.14946531 8:-0.03275873 9:-0.047039163 10:-0.047039163 11:-0.15832877 
1 1:-0.08606 2:-0.10524 3:0.13111752 4:0.34905409 5:-0.089149098 6:0.507448 7:0.11497088 8:-0.03275873 9:0.000132475 10:-0.050262447 11:0.29433985 
1 1:0.191126 2:0.599271 3:-0.18182206 4:0.20458166 5:0.029130009 6:-0.17863509 7:-0.14946531 8:-0.03275873 9:0.45076299 10:0.83513019 11:-0.15832877 
1 1:0.191126 2:0.599271 3:0.13111752 4:0.29106214 5:0.23990962 6:0.507448 7:0.56298976 8:-0.03275873 9:0.000132475 10:0.33057068 11:0.29433985 
1 1:0.191126 2:0.599271 3:0.13111752 4:0.34905409 5:0.23990962 6:0.28443156 7:0.56298976 8:-0.03275873 9:0.000132475 10:-0.050262447 11:0.29433985 
1 1:0.010003 2:0.599271 3:-0.18182206 4:0.061095504 5:0.029130009 6:0.507448 7:0.31454324 8:0.2118809 9:0.000132475 10:0.4022126 11:0.29433985 
1 1:0.191126 2:-0.10524 3:0.13111752 4:-0.025995297 5:0.029130009 6:0.507448 7:0.11497088 8:-0.03275873 9:0.000132475 10:-0.050262447 11:0.29433985 
1 1:0.191126 2:0.599271 3:-0.18182206 4:0.29106214 5:-0.089149098 6:0.28443156 7:0.31454324 8:-0.03275873 9:-0.047039163 10:-0.047039163 11:0.25327358 
1 1:-0.08915 2:-0.10524 3:-0.18182206 4:-0.025995297 5:-0.051360537 6:0.507448 7:0.31454324 8:-0.03275873 9:-0.047039163 10:-0.047039163 11:0.29433985 
0.4339862650677318 1:-0.08606 2:-0.10524 3:0.13111752 4:-0.16378272 5:-0.051360537 6:-0.17863509 7:-0.14946531 8:-0.03275873 9:-0.047039163 10:-0.047039163 11:-0.15832877 
1 1:0.010003 2:-0.10524 3:-0.18182206 4:0.34905409 5:0.029130009 6:0.507448 7:0.56298976 8:0.2118809 9:0.000132475 10:0.33057068 11:0.29433985 
1 1:0.191126 2:0.599271 3:0.13111752 4:0.061095504 5:0.029130009 6:0.28443156 7:0.31454324 8:-0.005168969 9:0.000132475 10:0.33057068 11:0.29433985 
1 1:0.010003 2:0.599271 3:-0.18182206 4:0.20458166 5:0.23990962 6:-0.090148625 7:-0.12957775 8:-0.005168969 9:-0.047039163 10:-0.047039163 11:0.29433985 
1 1:0.191126 2:0.599271 3:-0.18182206 4:0.061095504 5:-0.051360537 6:-0.090148625 7:-0.12957775 8:-0.03275873 9:0.000132475 10:-0.050262447 11:-0.22667696 
1 1:0.191126 2:-0.10524 3:0.13111752 4:-0.16378272 5:-0.051360537 6:-0.090148625 7:-0.12957775 8:-0.03275873 9:0.000132475 10:-0.050262447 11:-0.22667696 
1 1:0.191126 2:0.599271 3:-0.18182206 4:0.34905409 5:0.23990962 6:0.507448 7:0.56298976 8:-0.03275873 9:0.4671534 10:0.83513019 11:0.29433985 
1 1:-0.21088 2:0.009167 3:0.13111752 4:0.34905409 5:0.54633465 6:-0.17863509 7:-0.14946531 8:-0.03275873 9:-0.047039163 10:-0.047039163 11:-0.15832877 
1 1:-0.08606 2:0.009167 3:0.13111752 4:0.34905409 5:0.54633465 6:-0.090148625 7:0.31454324 8:-0.03275873 9:-0.047039163 10:-0.047039163 11:0.29433985 
0.5110053458734333 1:0.010003 2:-0.10524 3:-0.18182206 4:-0.025995297 5:-0.051360537 6:0.28443156 7:-0.12957775 8:-0.03275873 9:0.000132475 10:-0.050262447 11:-0.22667696 
1 1:0.191126 2:0.599271 3:0.13111752 4:-0.025995297 5:0.029130009 6:0.507448 7:0.56298976 8:-0.03275873 9:0.000132475 10:0.33057068 11:0.29433985 
1 1:-0.08606 2:-0.10524 3:0.13111752 4:-0.025995297 5:-0.051360537 6:0.507448 7:0.56298976 8:0.2118809 9:-0.047039163 10:-0.047039163 11:0.29433985 
1 1:0.010003 2:-0.10524 3:0.13111752 4:-0.025995297 5:-0.051360537 6:-0.090148625 7:-0.14946531 8:-0.03275873 9:0.45076299 10:0.4022126 11:-0.15832877 
1 1:0.010003 2:-0.10524 3:-0.18182206 4:-0.025995297 5:-0.051360537 6:0.507448 7:0.56298976 8:0.71703088 9:-0.047039163 10:-0.047039163 11:0.29433985 
1 1:0.010003 2:-0.10524 3:0.13111752 4:0.20458166 5:-0.051360537 6:0.507448 7:0.56298976 8:-0.005168969 9:0.000132475 10:-0.050262447 11:0.29433985 
1 1:0.191126 2:0.599271 3:0.13111752 4:-0.025995297 5:0.029130009 6:-0.17863509 7:-0.14946531 8:-0.03275873 9:0.4671534 10:0.83513019 11:-0.15832877 
1 1:-0.08606 2:-0.10524 3:0.13111752 4:-0.16378272 5:-0.051360537 6:0.507448 7:-0.12957775 8:-0.03275873 9:0.000132475 10:-0.050262447 11:0.29433985 
1 1:-0.08606 2:-0.10524 3:-0.18182206 4:-0.16378272 5:-0.051360537 6:-0.17863509 7:-0.14946531 8:-0.03275873 9:-0.047039163 10:-0.047039163 11:-0.15832877 
1 1:0.010003 2:0.599271 3:-0.18182206 4:-0.025995297 5:-0.051360537 6:0.507448 7:0.11497088 8:0.2118809 9:0.000132475 10:0.4022126 11:0.29433985 
1 1:0.010003 2:-0.10524 3:0.13111752 4:-0.025995297 5:-0.051360537 6:0.507448 7:0.56298976 8:-0.03275873 9:0.000132475 10:0.4022126 11:0.29433985 
1 1:0.191126 2:0.599271 3:-0.18182206 4:0.20458166 5:-0.051360537 6:-0.17863509 7:-0.14946531 8:-0.03275873 9:-0.047039163 10:-0.047039163 11:-0.15832877 
1 1:0.191126 2:-0.10524 3:-0.18182206 4:-0.025995297 5:-0.051360537 6:-0.17863509 7:-0.14946531 8:-0.03275873 9:0.000132475 10:0.33057068 11:-0.15832877 
1 1:0.010003 2:-0.10524 3:0.13111752 4:-0.025995297 5:-0.051360537 6:0.507448 7:0.31454324 8:-0.03275873 9:0.45076299 10:0.33057068 11:0.25327358 
1 1:0.010003 2:-0.10524 3:-0.18182206 4:-0.16378272 5:-0.051360537 6:0.507448 7:0.56298976 8:-0.03275873 9:-0.047039163 10:-0.047039163 11:0.29433985 
1 1:0.010003 2:0.009167 3:0.13111752 4:0.20458166 5:-0.051360537 6:-0.090148625 7:-0.14946531 8:0.71703088 9:-0.047039163 10:-0.047039163 11:0.29433985 
1 1:0.191126 2:0.599271 3:-0.18182206 4:0.061095504 5:-0.051360537 6:-0.17863509 7:-0.14946531 8:-0.03275873 9:0.000132475 10:-0.050262447 11:-0.15832877 
1 1:0.010003 2:-0.10524 3:0.13111752 4:0.061095504 5:-0.051360537 6:-0.090148625 7:0.56298976 8:-0.03275873 9:-0.047039163 10:-0.047039163 11:0.29433985 
1 1:0.010003 2:0.599271 3:0.13111752 4:0.061095504 5:0.029130009 6:0.507448 7:0.56298976 8:0.71703088 9:0.4671534 10:0.83513019 11:0.29433985 
1 1:-0.21088 2:-0.10524 3:0.13111752 4:-0.16378272 5:-0.051360537 6:-0.090148625 7:-0.12957775 8:-0.03275873 9:0.000132475 10:-0.050262447 11:-0.22667696 
1 1:0.010003 2:0.599271 3:0.13111752 4:-0.16378272 5:-0.051360537 6:-0.17863509 7:-0.14946531 8:-0.03275873 9:0.4671534 10:0.83513019 11:-0.15832877 
1 1:0.010003 2:-0.10524 3:0.13111752 4:0.34905409 5:-0.051360537 6:0.507448 7:0.11497088 8:0.2118809 9:-0.047039163 10:-0.047039163 11:0.29433985 
1 1:0.010003 2:-0.10524 3:0.13111752 4:0.34905409 5:-0.089149098 6:0.28443156 7:0.31454324 8:-0.03275873 9:0.000132475 10:-0.050262447 11:0.29433985 
1 1:0.010003 2:-0.10524 3:0.13111752 4:0.29106214 5:-0.089149098 6:-0.090148625 7:0.31454324 8:-0.03275873 9:0.4671534 10:0.33057068 11:0.29433985 
1 1:0.010003 2:0.009167 3:0.13111752 4:0.29106214 5:0.54633465 6:-0.17863509 7:-0.14946531 8:-0.03275873 9:-0.047039163 10:-0.047039163 11:-0.15832877 
1 1:0.010003 2:-0.10524 3:0.13111752 4:-0.16378272 5:-0.051360537 6:0.28443156 7:0.56298976 8:0.2118809 9:-0.047039163 10:-0.047039163 11:0.29433985 
1 1:0.010003 2:-0.10524 3:0.13111752 4:0.20458166 5:0.029130009 6:-0.17863509 7:-0.14946531 8:-0.03275873 9:0.000132475 10:0.33057068 11:-0.15832877 
1 1:-0.08915 2:-0.10524 3:0.13111752 4:0.20458166 5:0.54633465 6:-0.090148625 7:-0.14946531 8:-0.03275873 9:-0.047039163 10:-0.047039163 11:-0.15832877 
1 1:0.010003 2:-0.10524 3:0.13111752 4:0.061095504 5:0.54633465 6:-0.17863509 7:-0.14946531 8:-0.03275873 9:0.000132475 10:-0.050262447 11:-0.15832877 
1 1:0.010003 2:-0.10524 3:0.13111752 4:-0.16378272 5:-0.051360537 6:-0.17863509 7:-0.14946531 8:-0.03275873 9:0.45076299 10:0.33057068 11:-0.15832877 
1 1:0.010003 2:-0.10524 3:-0.18182206 4:-0.025995297 5:-0.051360537 6:0.507448 7:0.31454324 8:0.71703088 9:-0.047039163 10:-0.047039163 11:0.25327358 
1 1:-0.21088 2:-0.10524 3:0.13111752 4:-0.025995297 5:0.54633465 6:-0.090148625 7:-0.12957775 8:-0.03275873 9:0.000132475 10:-0.050262447 11:0.25327358 
1 1:-0.21088 2:-0.10524 3:-0.18182206 4:0.061095504 5:-0.051360537 6:-0.17863509 7:-0.14946531 8:-0.03275873 9:-0.047039163 10:-0.047039163 11:-0.15832877 
1 1:0.191126 2:0.599271 3:-0.18182206 4:-0.16378272 5:-0.051360537 6:0.507448 7:0.56298976 8:-0.03275873 9:-0.047039163 10:-0.047039163 11:0.29433985 
1 1:0.010003 2:-0.10524 3:0.13111752 4:-0.025995297 5:0.029130009 6:0.507448 7:0.56298976 8:0.2118809 9:-0.047039163 10:-0.047039163 11:0.29433985 
